[[1.0], [1.0], [1.0], [1.0], [1.0], [1.0], [1.0], [1.0], [1.0], [1.0], [1.0], [1.0], [1.0], [1.0], [1.0], [1.0], [1.0], [1.0], [1.0], [1.0], [1.0], [1.0], [1.0], [1.0], [1.0], [1.0], [1.0], [1.0], [1.0], [1.0], [1.0], [1.0], [1.0], [1.0], [1.0], [1.0], [1.0], [1.0], [1.0], [1.0], [1.0], [1.0], [1.0], [1.0], [1.0], [1.0], [1.0], [1.0], [1.0], [1.0], [1.0], [1.0], [1.0], [1.0], [1.0], [1.0], [1.0], [1.0], [1.0], [1.0]]
[[-0.6215456851782445, -1.1596490531821972, 1.3158754934473547, 0.6505349445956669, 0.7313304891911655, 1.8398586802814458, -0.7686492459856186, 0.1772235701086519, -0.7650874462069367, 2.125028860365895, 0.13464976575167573, 0.28549845400483354, -0.46754513363041494, 1.1159692681443296, -0.4802169665660796, 0.3714951904769307, -0.5910439533603916, 0.11156238689889088, -0.3592331884042286, -1.0886281728509104, 1.9088629417305265, 1.5519515610815136, 0.524783563405904, -0.6657613103701819, 1.8900895690469635, 0.5275486859209592, -0.45392743080280773, 0.6948212001285076, -0.6887738394716801, -0.9050099134479076, 0.34810775555956186, 0.10619605900330516, 1.8130630283470195, -0.7810520437279286, 1.2376810902331692, 0.8223409836472523, 0.7995614571478457, 0.8414117156674671, -0.41868015683961546, 1.2557884454295976, 1.6701731282559327, -1.1596329892959893, 0.44898003097094386, -0.7493562678024536, -0.4255622742151606, -0.3713804635507183, 1.868052279666022, -0.7567725716917618, -1.048718824407544, 0.27200043679618824, -0.9295421878198388, 0.25885293380972996, -0.5101544768128132, 2.1194648609749147, -0.2681524419739217, -1.025187968448964, 1.6192282032566263, 0.6147339684314658, 1.6600885522791642, 0.5181420385108891], [0.9289109957167514, -0.5459511020123933, -0.5550459718288028, -0.017303012554900576, -0.767075489362192, 1.1194224991018324, 1.632089256268121, 0.6361619404055268, 2.035273686016684, -0.08839691196947402, 0.8796731173058898, -0.017434298275930182, 0.7707718946622641, 1.4449906114660167, 0.7298575033929, 0.9351780928187143, 1.2121020930747544, -0.5478372797181341, 0.36568067434541346, 0.35345126050408615, 1.9935909340706361, 1.0756117903902234, -0.3327460028380889, 2.1589687255748378, 1.496650505172143, -0.6196367109157999, 0.28495488086621484, -0.8217710112443739, 1.7602784897756312, 0.19482890600419284, -0.7983204590395792, -0.8342513496554975, 1.1840057260967587, 1.6617809379389383, -0.4906155245716682, -0.9877687446403716, 0.8456717449158742, 0.31394158044893133, 1.6257956757758731, -0.948125464602291, -0.43817800887014996, -0.027257589307034535, 1.5805701323766264, 2.255138180821877, -0.651465323174456, 1.3816090624346402, 1.8353991780646246, 2.28738185283345, 2.242807863202295, 0.16258838993951813, 2.1697853951408423, -0.40881929397228683, 0.412420651587864, 1.1593096707887107, 1.0152139880466966, 0.2404496523253174, 1.5711469777088496, 0.40297227251828416, -0.41857856809038735, 1.083911424826459], [0.6172902574341315, 2.047997818546381, 0.21351374224768327, 0.9838835615946466, 0.4056649496403761, -0.6377320963340511, -0.16186716076716834, 1.3002291225886484, 0.3619001667900656, 0.7391604168993458, 1.1177322037576305, 1.9559622564531804, 0.36878545182494366, 1.5551837420379568, 2.034897405693349, 1.6645564598316294, 0.34876359316475664, -0.6584667953081387, 2.450631712407776, -0.3608778322384885, 0.22792273959071707, 0.2781701755286608, 0.700864170411188, 0.663941803986505, 2.0318619335570816, 2.5084636189221037, 0.5232562872191264, -0.32561966325173247, 0.2773830425293166, 1.9207094301658532, 1.0609452145004155, 2.075923772808495, -0.17724989156842294, 2.47150369216334, 1.5433498598214221, 0.3099572312932865, -0.10192971788903664, 0.4408726010166712, -0.4081595088871382, 2.188953283623638, 0.2631126938469396, -0.7241695733696238, 0.2240011576017371, 1.0653439199161956, 1.291341730860148, 0.06016520013766137, 1.0610765350718272, 2.2327808221466743, 0.19341563139538187, 0.9812967222514621, 1.6980709299011147, 0.11234109315536613, 2.423740776508441, -0.7954435489596741, 1.0575056520467103, 1.9563930899125825, 1.94795500898507, 1.406605856875657, 0.6792483265157503, 0.15068284854399316], [-1.1114482266780545, 1.3250627655318021, 1.1677526178385433, 0.015523474340496104, -0.5359553390913526, 1.3849094885053, -1.1595835841481228, 1.0556252134635546, -0.6140947774294604, 0.9389951912260323, 0.17161843562255688, -1.1913766574031828, 0.15320532157475122, -0.4530180681812829, -0.23431131236882682, 1.771076362793963, -1.0618355986654768, 0.5505987497834127, -0.19199394319893623, 0.8224694193339045, 1.2901636070099525, 1.8916867284838885, 0.16926418230938026, 1.2056395456614315, 0.263860421304979, 2.1265388318031357, -0.6625390672507442, 0.48144678085739595, 0.25096721801362926, 0.01640731186077463, 1.2353480934990306, -0.8968398336055682, -0.5843924008716418, 0.3322536603397007, -0.6209713456669986, -1.169368035692542, -0.5041546735351848, -0.9510347281903412, 1.0785384261278528, 1.3416454285740247, -0.05888703944343299, 2.0676909229405505, -1.0673519960106814, 1.3005330499894432, 1.193667040043252, 1.4279898000867732, -0.7027329033437358, -0.34248411716661475, 1.4269713481832869, 1.6319231827858764, -0.21880749316742185, 0.10230398701372168, 1.865734196886186, -0.07608037346978239, -0.6738535452488242, 1.1963360642153906, -0.740907237791867, -0.917842989068857, 1.6957370200643027, 1.118289755126668], [-0.11999271070071542, -0.22265464125657555, 0.18181309042659652, 2.5115894852261116, 2.3016998049999535, 2.1857105231760565, 2.0151195245569067, 2.6609553955799585, 1.8210248375352511, 0.4184395834214388, 0.08356374514719872, 2.3356712506138346, 1.3419056434736933, 2.2159691173210128, 2.4365916915876937, -0.18832450148713506, 0.16665130687060545, 0.0716790056807488, 1.9827470206031153, 1.9044720460795774, 1.3778117422030174, 2.6286570356058956, 1.1989956000130446, 0.27614267445561747, 1.6390611629920497, -0.07789299828986888, 2.113295042551208, 1.7632623503169105, 2.4502838218991316, 1.9350329688750556, 1.7938379205673212, -0.24013897508499518, -0.47831124732239255, -0.3875735108535459, 2.47062973258694, 2.7056168965308585, 2.1987043630159735, 0.745388450603194, 0.8558227649884881, -0.43781195313968296, 0.9045833966768356, 2.283840921618234, 1.5112856707183828, 1.4451333167862959, 1.4892013447503392, 1.056181216359762, 2.104387331723971, 1.2513203830139765, -0.6251419408651936, 1.7688331260040104, 1.6454642809347713, 0.9932631185513079, 1.616432942721213, 2.2133493117849508, 2.0191269780334764, -0.019879869893127032, 0.3809561917030261, 0.007561277489483298, 1.604678801107273, 1.7106625259215023]]
[[1.093396789921166, 0.4744613388049929, 1.7301764380538827, 0.1979985172268034, 0.8696217944217219], [-0.4863483859347217, -2.180272535245095, -1.8100742239234835, -1.6741087661227958, 0.7355177238483895], [-1.2501994104925338, -1.1973432266886477, 1.1719355620605636, -0.7574247509970634, -1.1179434722421602], [0.5571636574386116, 0.5358312659682664, 2.0962059970326785, 0.6089878445530865, -0.1577841027884351], [-2.55168866301107, -4.131277468940198, -4.488501277131264, -4.638036666500345, -3.943198069327502], [2.474471743334174, 0.7620429753207474, 2.1038514587094017, -0.47309275627743025, 0.3191494688660534]]
[[1.4415657554287282, 1.2659403213575775, 3.2807455676987254, 1.2893747207470314, 3.957585907017646, 1.8825842253127052], [-1.7273328294679529, -1.1048781895765254, -2.1574774125276677, -1.910095204986222, -1.9865958193722666, -0.8420795106011626], [1.344270153153646, 1.6672741741009975, 1.1964458194645156, 2.1072651709391654, 3.07931415382989, 1.8202186053415936], [-2.37793283358545, -0.7558408690881979, -1.486373863491011, -1.065804834825256, -2.4063664996666727, -1.5744339627323076], [-2.0865768951312664, 0.568025766325479, 0.8529809476768513, 1.0464137845681112, -1.6990750091669717, -0.4070178346825959]]

[[0.0], [0.0], [0.0], [0.0], [0.0], [0.0], [0.0], [0.0], [0.0], [0.0], [0.0], [0.0], [0.0], [0.0], [0.0], [0.0], [0.0], [0.0], [0.0], [0.0], [0.0], [0.0], [0.0], [0.0], [0.0], [0.0], [0.0], [0.0], [0.0], [0.0], [0.0], [0.0], [0.0], [0.0], [0.0], [0.0], [0.0], [0.0], [0.0], [0.0], [0.0], [0.0], [0.0], [0.0], [0.0], [0.0], [0.0], [0.0], [0.0], [0.0], [0.0], [0.0], [0.0], [0.0], [0.0], [0.0], [0.0], [0.0], [0.0], [0.0]]
[[-11.403315521914827], [130.7973523092816], [-39.249373443161026], [-33.66931785636127], [65.44738204103606]]
[[2.2840957310907606], [-6.4158402356663515], [-4.952349993173041], [3.1971048370768194], [-0.12492591022942837], [-5.7247841400978015]]
[[-6.682989147902267], [-0.2683823447424638], [-6.997094565788592], [0.14224752375039978], [4.208788151208662]]
